{
  "lite": {
    "feature_names": [
      "pred_code",
      "arm_count",
      "branch_component_area",
      "local_err_t",
      "local_err_y",
      "local_ambiguous",
      "score",
      "ty_rule_err_t_29",
      "ty_rule_err_y_29",
      "ty_rule_t_guardrail_29",
      "ty_rule_a0_29",
      "ty_rule_a1_29",
      "ty_rule_a2_29",
      "ty_rule_opp_angle_29",
      "ty_rule_opp_gap_29",
      "ty_rule_area_cv_29",
      "ty_rule_span_cv_29",
      "ty_rule_area_ratio_29",
      "ty_rule_span_ratio_29",
      "ty_rule_third_area_frac_29",
      "ty_rule_third_span_frac_29",
      "ty_rule_opp_balance_29",
      "ty_rule_opp_area_ratio_29",
      "ty_rule_opp_span_ratio_29",
      "ty_rule_arm_count_29",
      "ty_rule_err_t_45",
      "ty_rule_err_y_45",
      "ty_rule_t_guardrail_45",
      "ty_rule_a0_45",
      "ty_rule_a1_45",
      "ty_rule_a2_45",
      "ty_rule_opp_angle_45",
      "ty_rule_opp_gap_45",
      "ty_rule_area_cv_45",
      "ty_rule_span_cv_45",
      "ty_rule_area_ratio_45",
      "ty_rule_span_ratio_45",
      "ty_rule_third_area_frac_45",
      "ty_rule_third_span_frac_45",
      "ty_rule_opp_balance_45",
      "ty_rule_opp_area_ratio_45",
      "ty_rule_opp_span_ratio_45",
      "ty_rule_arm_count_45",
      "ty_rule_err_t_61",
      "ty_rule_err_y_61",
      "ty_rule_t_guardrail_61",
      "ty_rule_a0_61",
      "ty_rule_a1_61",
      "ty_rule_a2_61",
      "ty_rule_opp_angle_61",
      "ty_rule_opp_gap_61",
      "ty_rule_area_cv_61",
      "ty_rule_span_cv_61",
      "ty_rule_area_ratio_61",
      "ty_rule_span_ratio_61",
      "ty_rule_third_area_frac_61",
      "ty_rule_third_span_frac_61",
      "ty_rule_opp_balance_61",
      "ty_rule_opp_area_ratio_61",
      "ty_rule_opp_span_ratio_61",
      "ty_rule_arm_count_61"
    ],
    "children_left": [
      1,
      2,
      3,
      4,
      -1,
      6,
      -1,
      -1,
      9,
      10,
      -1,
      -1,
      -1,
      14,
      -1,
      16,
      -1,
      18,
      19,
      -1,
      21,
      22,
      -1,
      24,
      25,
      26,
      -1,
      -1,
      -1,
      -1,
      -1,
      32,
      33,
      -1,
      35,
      -1,
      -1,
      -1,
      39,
      40,
      41,
      42,
      -1,
      -1,
      45,
      -1,
      47,
      -1,
      -1,
      50,
      -1,
      -1,
      53,
      54,
      -1,
      -1,
      57,
      58,
      -1,
      -1,
      -1
    ],
    "children_right": [
      38,
      13,
      8,
      5,
      -1,
      7,
      -1,
      -1,
      12,
      11,
      -1,
      -1,
      -1,
      15,
      -1,
      17,
      -1,
      31,
      20,
      -1,
      30,
      23,
      -1,
      29,
      28,
      27,
      -1,
      -1,
      -1,
      -1,
      -1,
      37,
      34,
      -1,
      36,
      -1,
      -1,
      -1,
      52,
      49,
      44,
      43,
      -1,
      -1,
      46,
      -1,
      48,
      -1,
      -1,
      51,
      -1,
      -1,
      56,
      55,
      -1,
      -1,
      60,
      59,
      -1,
      -1,
      -1
    ],
    "feature": [
      0,
      25,
      29,
      10,
      -2,
      2,
      -2,
      -2,
      26,
      33,
      -2,
      -2,
      -2,
      15,
      -2,
      11,
      -2,
      15,
      39,
      -2,
      33,
      2,
      -2,
      52,
      27,
      40,
      -2,
      -2,
      -2,
      -2,
      -2,
      53,
      4,
      -2,
      15,
      -2,
      -2,
      -2,
      0,
      53,
      18,
      2,
      -2,
      -2,
      41,
      -2,
      3,
      -2,
      -2,
      4,
      -2,
      -2,
      2,
      2,
      -2,
      -2,
      2,
      2,
      -2,
      -2,
      -2
    ],
    "threshold": [
      0.5,
      62.0200472559285,
      118.75453023136524,
      104.17192936661648,
      -2.0,
      3.5,
      -2.0,
      -2.0,
      110.75918444291673,
      0.42158554885100125,
      -2.0,
      -2.0,
      -2.0,
      0.10815999399586049,
      -2.0,
      109.35601262950517,
      -2.0,
      0.3693966223993812,
      0.13373071528751754,
      -2.0,
      0.38118731327579064,
      2.0,
      -2.0,
      0.011153880239413312,
      0.5,
      3.212121212121212,
      -2.0,
      -2.0,
      -2.0,
      -2.0,
      -2.0,
      2.9047619047619047,
      26.870229531632766,
      -2.0,
      0.37925453762737515,
      -2.0,
      -2.0,
      -2.0,
      1.5,
      3.3846153846153846,
      1.0130758633329118,
      3.5,
      -2.0,
      -2.0,
      2.0685608741069044,
      -2.0,
      79.35511855908882,
      -2.0,
      -2.0,
      35.62762525592921,
      -2.0,
      -2.0,
      3.5,
      2.0,
      -2.0,
      -2.0,
      5.5,
      4.5,
      -2.0,
      -2.0,
      -2.0
    ],
    "value": [
      [
        234.0,
        144.0,
        35.0
      ],
      [
        229.0,
        20.0,
        6.0
      ],
      [
        169.0,
        5.0,
        0.0
      ],
      [
        150.0,
        1.0,
        0.0
      ],
      [
        143.0,
        0.0,
        0.0
      ],
      [
        7.0,
        1.0,
        0.0
      ],
      [
        6.0,
        0.0,
        0.0
      ],
      [
        1.0,
        1.0,
        0.0
      ],
      [
        19.0,
        4.0,
        0.0
      ],
      [
        19.0,
        2.0,
        0.0
      ],
      [
        18.0,
        0.0,
        0.0
      ],
      [
        1.0,
        2.0,
        0.0
      ],
      [
        0.0,
        2.0,
        0.0
      ],
      [
        60.0,
        15.0,
        6.0
      ],
      [
        24.0,
        0.0,
        0.0
      ],
      [
        36.0,
        15.0,
        6.0
      ],
      [
        0.0,
        3.0,
        0.0
      ],
      [
        36.0,
        12.0,
        6.0
      ],
      [
        28.0,
        11.0,
        1.0
      ],
      [
        10.0,
        0.0,
        0.0
      ],
      [
        18.0,
        11.0,
        1.0
      ],
      [
        11.0,
        11.0,
        1.0
      ],
      [
        4.0,
        0.0,
        0.0
      ],
      [
        7.0,
        11.0,
        1.0
      ],
      [
        4.0,
        11.0,
        1.0
      ],
      [
        2.0,
        11.0,
        0.0
      ],
      [
        0.0,
        10.0,
        0.0
      ],
      [
        2.0,
        1.0,
        0.0
      ],
      [
        2.0,
        0.0,
        1.0
      ],
      [
        3.0,
        0.0,
        0.0
      ],
      [
        7.0,
        0.0,
        0.0
      ],
      [
        8.0,
        1.0,
        5.0
      ],
      [
        8.0,
        1.0,
        2.0
      ],
      [
        0.0,
        0.0,
        2.0
      ],
      [
        8.0,
        1.0,
        0.0
      ],
      [
        1.0,
        1.0,
        0.0
      ],
      [
        7.0,
        0.0,
        0.0
      ],
      [
        0.0,
        0.0,
        3.0
      ],
      [
        5.0,
        124.0,
        29.0
      ],
      [
        3.0,
        122.0,
        2.0
      ],
      [
        3.0,
        120.0,
        0.0
      ],
      [
        2.0,
        6.0,
        0.0
      ],
      [
        2.0,
        2.0,
        0.0
      ],
      [
        0.0,
        4.0,
        0.0
      ],
      [
        1.0,
        114.0,
        0.0
      ],
      [
        0.0,
        109.0,
        0.0
      ],
      [
        1.0,
        5.0,
        0.0
      ],
      [
        1.0,
        1.0,
        0.0
      ],
      [
        0.0,
        4.0,
        0.0
      ],
      [
        0.0,
        2.0,
        2.0
      ],
      [
        0.0,
        2.0,
        0.0
      ],
      [
        0.0,
        0.0,
        2.0
      ],
      [
        2.0,
        2.0,
        27.0
      ],
      [
        1.0,
        0.0,
        16.0
      ],
      [
        1.0,
        0.0,
        5.0
      ],
      [
        0.0,
        0.0,
        11.0
      ],
      [
        1.0,
        2.0,
        11.0
      ],
      [
        1.0,
        2.0,
        8.0
      ],
      [
        1.0,
        1.0,
        6.0
      ],
      [
        0.0,
        1.0,
        2.0
      ],
      [
        0.0,
        0.0,
        3.0
      ]
    ],
    "classes": [
      "T",
      "Y",
      "X"
    ]
  },
  "aggressive": {
    "feature_names": [
      "pred_code",
      "arm_count",
      "branch_component_area",
      "local_err_t",
      "local_err_y",
      "local_ambiguous",
      "score",
      "ty_rule_err_t_29",
      "ty_rule_err_y_29",
      "ty_rule_t_guardrail_29",
      "ty_rule_a0_29",
      "ty_rule_a1_29",
      "ty_rule_a2_29",
      "ty_rule_opp_angle_29",
      "ty_rule_opp_gap_29",
      "ty_rule_area_cv_29",
      "ty_rule_span_cv_29",
      "ty_rule_area_ratio_29",
      "ty_rule_span_ratio_29",
      "ty_rule_third_area_frac_29",
      "ty_rule_third_span_frac_29",
      "ty_rule_opp_balance_29",
      "ty_rule_opp_area_ratio_29",
      "ty_rule_opp_span_ratio_29",
      "ty_rule_arm_count_29",
      "ty_rule_err_t_45",
      "ty_rule_err_y_45",
      "ty_rule_t_guardrail_45",
      "ty_rule_a0_45",
      "ty_rule_a1_45",
      "ty_rule_a2_45",
      "ty_rule_opp_angle_45",
      "ty_rule_opp_gap_45",
      "ty_rule_area_cv_45",
      "ty_rule_span_cv_45",
      "ty_rule_area_ratio_45",
      "ty_rule_span_ratio_45",
      "ty_rule_third_area_frac_45",
      "ty_rule_third_span_frac_45",
      "ty_rule_opp_balance_45",
      "ty_rule_opp_area_ratio_45",
      "ty_rule_opp_span_ratio_45",
      "ty_rule_arm_count_45",
      "ty_rule_err_t_61",
      "ty_rule_err_y_61",
      "ty_rule_t_guardrail_61",
      "ty_rule_a0_61",
      "ty_rule_a1_61",
      "ty_rule_a2_61",
      "ty_rule_opp_angle_61",
      "ty_rule_opp_gap_61",
      "ty_rule_area_cv_61",
      "ty_rule_span_cv_61",
      "ty_rule_area_ratio_61",
      "ty_rule_span_ratio_61",
      "ty_rule_third_area_frac_61",
      "ty_rule_third_span_frac_61",
      "ty_rule_opp_balance_61",
      "ty_rule_opp_area_ratio_61",
      "ty_rule_opp_span_ratio_61",
      "ty_rule_arm_count_61"
    ],
    "children_left": [
      1,
      2,
      3,
      4,
      -1,
      6,
      -1,
      -1,
      9,
      10,
      -1,
      12,
      -1,
      -1,
      -1,
      16,
      -1,
      18,
      -1,
      20,
      21,
      -1,
      23,
      24,
      -1,
      26,
      27,
      28,
      -1,
      30,
      -1,
      -1,
      33,
      -1,
      -1,
      -1,
      -1,
      38,
      39,
      -1,
      41,
      -1,
      -1,
      -1,
      45,
      46,
      47,
      48,
      49,
      50,
      -1,
      52,
      -1,
      -1,
      -1,
      -1,
      57,
      -1,
      59,
      -1,
      -1,
      62,
      -1,
      -1,
      65,
      66,
      -1,
      -1,
      69,
      70,
      -1,
      -1,
      -1
    ],
    "children_right": [
      44,
      15,
      8,
      5,
      -1,
      7,
      -1,
      -1,
      14,
      11,
      -1,
      13,
      -1,
      -1,
      -1,
      17,
      -1,
      19,
      -1,
      37,
      22,
      -1,
      36,
      25,
      -1,
      35,
      32,
      29,
      -1,
      31,
      -1,
      -1,
      34,
      -1,
      -1,
      -1,
      -1,
      43,
      40,
      -1,
      42,
      -1,
      -1,
      -1,
      64,
      61,
      56,
      55,
      54,
      51,
      -1,
      53,
      -1,
      -1,
      -1,
      -1,
      58,
      -1,
      60,
      -1,
      -1,
      63,
      -1,
      -1,
      68,
      67,
      -1,
      -1,
      72,
      71,
      -1,
      -1,
      -1
    ],
    "feature": [
      0,
      25,
      29,
      10,
      -2,
      20,
      -2,
      -2,
      26,
      33,
      -2,
      2,
      -2,
      -2,
      -2,
      15,
      -2,
      11,
      -2,
      15,
      39,
      -2,
      33,
      2,
      -2,
      52,
      27,
      40,
      -2,
      11,
      -2,
      -2,
      3,
      -2,
      -2,
      -2,
      -2,
      53,
      4,
      -2,
      2,
      -2,
      -2,
      -2,
      0,
      53,
      18,
      10,
      2,
      2,
      -2,
      6,
      -2,
      -2,
      -2,
      -2,
      41,
      -2,
      3,
      -2,
      -2,
      4,
      -2,
      -2,
      2,
      2,
      -2,
      -2,
      2,
      2,
      -2,
      -2,
      -2
    ],
    "threshold": [
      0.5,
      62.0200472559285,
      118.75453023136524,
      104.17192936661648,
      -2.0,
      0.34295407130342437,
      -2.0,
      -2.0,
      110.75918444291673,
      0.42158554885100125,
      -2.0,
      3.5,
      -2.0,
      -2.0,
      -2.0,
      0.10815999399586049,
      -2.0,
      109.35601262950517,
      -2.0,
      0.3693966223993812,
      0.13373071528751754,
      -2.0,
      0.38118731327579064,
      2.0,
      -2.0,
      0.011153880239413312,
      0.5,
      3.212121212121212,
      -2.0,
      117.35009436871997,
      -2.0,
      -2.0,
      74.78173882601155,
      -2.0,
      -2.0,
      -2.0,
      -2.0,
      2.9047619047619047,
      26.870229531632766,
      -2.0,
      2.0,
      -2.0,
      -2.0,
      -2.0,
      1.5,
      3.3846153846153846,
      1.0130758633329118,
      115.13331530008227,
      3.5,
      2.0,
      -2.0,
      0.031947789637240494,
      -2.0,
      -2.0,
      -2.0,
      -2.0,
      2.0685608741069044,
      -2.0,
      69.8333604984628,
      -2.0,
      -2.0,
      35.62762525592921,
      -2.0,
      -2.0,
      3.5,
      2.0,
      -2.0,
      -2.0,
      5.5,
      4.5,
      -2.0,
      -2.0,
      -2.0
    ],
    "value": [
      [
        234.0,
        144.0,
        35.0
      ],
      [
        229.0,
        20.0,
        6.0
      ],
      [
        169.0,
        5.0,
        0.0
      ],
      [
        150.0,
        1.0,
        0.0
      ],
      [
        143.0,
        0.0,
        0.0
      ],
      [
        7.0,
        1.0,
        0.0
      ],
      [
        7.0,
        0.0,
        0.0
      ],
      [
        0.0,
        1.0,
        0.0
      ],
      [
        19.0,
        4.0,
        0.0
      ],
      [
        19.0,
        2.0,
        0.0
      ],
      [
        18.0,
        0.0,
        0.0
      ],
      [
        1.0,
        2.0,
        0.0
      ],
      [
        0.0,
        2.0,
        0.0
      ],
      [
        1.0,
        0.0,
        0.0
      ],
      [
        0.0,
        2.0,
        0.0
      ],
      [
        60.0,
        15.0,
        6.0
      ],
      [
        24.0,
        0.0,
        0.0
      ],
      [
        36.0,
        15.0,
        6.0
      ],
      [
        0.0,
        3.0,
        0.0
      ],
      [
        36.0,
        12.0,
        6.0
      ],
      [
        28.0,
        11.0,
        1.0
      ],
      [
        10.0,
        0.0,
        0.0
      ],
      [
        18.0,
        11.0,
        1.0
      ],
      [
        11.0,
        11.0,
        1.0
      ],
      [
        4.0,
        0.0,
        0.0
      ],
      [
        7.0,
        11.0,
        1.0
      ],
      [
        4.0,
        11.0,
        1.0
      ],
      [
        2.0,
        11.0,
        0.0
      ],
      [
        0.0,
        10.0,
        0.0
      ],
      [
        2.0,
        1.0,
        0.0
      ],
      [
        2.0,
        0.0,
        0.0
      ],
      [
        0.0,
        1.0,
        0.0
      ],
      [
        2.0,
        0.0,
        1.0
      ],
      [
        0.0,
        0.0,
        1.0
      ],
      [
        2.0,
        0.0,
        0.0
      ],
      [
        3.0,
        0.0,
        0.0
      ],
      [
        7.0,
        0.0,
        0.0
      ],
      [
        8.0,
        1.0,
        5.0
      ],
      [
        8.0,
        1.0,
        2.0
      ],
      [
        0.0,
        0.0,
        2.0
      ],
      [
        8.0,
        1.0,
        0.0
      ],
      [
        0.0,
        1.0,
        0.0
      ],
      [
        8.0,
        0.0,
        0.0
      ],
      [
        0.0,
        0.0,
        3.0
      ],
      [
        5.0,
        124.0,
        29.0
      ],
      [
        3.0,
        122.0,
        2.0
      ],
      [
        3.0,
        120.0,
        0.0
      ],
      [
        2.0,
        6.0,
        0.0
      ],
      [
        1.0,
        6.0,
        0.0
      ],
      [
        1.0,
        2.0,
        0.0
      ],
      [
        0.0,
        1.0,
        0.0
      ],
      [
        1.0,
        1.0,
        0.0
      ],
      [
        0.0,
        1.0,
        0.0
      ],
      [
        1.0,
        0.0,
        0.0
      ],
      [
        0.0,
        4.0,
        0.0
      ],
      [
        1.0,
        0.0,
        0.0
      ],
      [
        1.0,
        114.0,
        0.0
      ],
      [
        0.0,
        109.0,
        0.0
      ],
      [
        1.0,
        5.0,
        0.0
      ],
      [
        1.0,
        0.0,
        0.0
      ],
      [
        0.0,
        5.0,
        0.0
      ],
      [
        0.0,
        2.0,
        2.0
      ],
      [
        0.0,
        2.0,
        0.0
      ],
      [
        0.0,
        0.0,
        2.0
      ],
      [
        2.0,
        2.0,
        27.0
      ],
      [
        1.0,
        0.0,
        16.0
      ],
      [
        1.0,
        0.0,
        5.0
      ],
      [
        0.0,
        0.0,
        11.0
      ],
      [
        1.0,
        2.0,
        11.0
      ],
      [
        1.0,
        2.0,
        8.0
      ],
      [
        1.0,
        1.0,
        6.0
      ],
      [
        0.0,
        1.0,
        2.0
      ],
      [
        0.0,
        0.0,
        3.0
      ]
    ],
    "classes": [
      "T",
      "Y",
      "X"
    ]
  }
}
